/*!
 * The following copyright notice may not be removed under any circumstances.
 * 
 * Copyright:
 * © 1990-91 Apple Computer Inc. © 1981 Linotype AG © 1990-91 Type Solutions Inc.
 * 
 * Trademark:
 * Helvetica is a registered trademark of Linotype AG
 */
Cufon.registerFont({"w":1139,"face":{"font-family":"Helvetica","font-weight":700,"font-stretch":"normal","units-per-em":"2048","panose-1":"0 0 0 0 0 0 0 0 0 0","ascent":"1577","descent":"-471","x-height":"24","bbox":"-112 -1588 1903 446.114","underline-thickness":"101","underline-position":"-105","unicode-range":"U+0020-U+2122"},"glyphs":{" ":{"w":569},"!":{"d":"225,-1469r313,0r0,374r-81,688r-149,0r-83,-688r0,-374xm232,-289r298,0r0,289r-298,0r0,-289","w":682},"\"":{"d":"819,-1474r-47,609r-180,0r-46,-609r273,0xm440,-1474r-48,609r-180,0r-45,-609r273,0","w":971},"#":{"d":"611,-568r81,-292r-166,0r-78,292r163,0xm45,-568r203,0r79,-292r-204,0r45,-168r204,0r109,-403r199,0r-109,403r166,0r106,-403r199,0r-106,403r201,0r-45,168r-201,0r-81,292r204,0r-45,168r-204,0r-107,400r-199,0r107,-400r-164,0r-109,400r-199,0r109,-400r-203,0"},"$":{"d":"616,-187v126,-14,178,-64,178,-195v0,-119,-69,-157,-178,-196r0,391xm521,-1232v-111,1,-171,61,-171,168v0,107,70,154,171,183r0,-351xm1071,-412v0,274,-189,429,-453,448r0,201r-97,0r0,-199v-315,-29,-458,-160,-462,-478r270,0v20,178,42,221,192,256r0,-427v-140,-37,-290,-100,-351,-180v-80,-104,-101,-274,-48,-410v41,-108,137,-196,244,-229v35,-11,87,-20,155,-25r0,-133r95,0r0,135v109,9,192,38,256,80v111,74,171,187,175,347r-263,0v-10,-134,-47,-195,-168,-208r0,381v159,55,265,103,320,145v90,70,135,169,135,296"},"%":{"d":"419,-912v86,0,159,-73,159,-159v0,-86,-73,-159,-159,-159v-86,0,-159,73,-159,159v0,86,73,159,159,159xm791,-1071v0,200,-171,372,-372,372v-200,0,-372,-172,-372,-372v0,-200,172,-372,372,-372v200,0,372,172,372,372xm1550,-343v0,-86,-73,-159,-159,-159v-86,0,-159,73,-159,159v0,86,73,159,159,159v86,0,159,-73,159,-159xm1763,-343v0,200,-172,372,-372,372v-200,0,-372,-172,-372,-372v0,-201,172,-372,372,-372v200,0,372,172,372,372xm1232,-1450r152,0r-808,1488r-155,0","w":1821},"&":{"d":"587,36v-355,18,-599,-358,-410,-653v45,-70,144,-147,247,-207v-71,-82,-132,-170,-134,-303v-4,-218,168,-342,388,-342v199,0,365,135,362,329v-3,201,-103,275,-242,361r209,258v44,-64,74,-142,76,-242r253,0v-12,172,-69,320,-168,441r268,322r-346,0r-102,-125v-106,102,-218,152,-401,161xm673,-1256v-67,2,-128,49,-121,119v8,86,46,106,106,187v74,-52,136,-97,136,-188v0,-66,-46,-120,-121,-118xm395,-398v-5,101,99,195,212,195v96,0,186,-56,234,-105r-270,-334v-110,79,-169,109,-176,244","w":1479},"'":{"d":"388,-1474r-50,609r-173,0r-50,-609r273,0","w":487},"(":{"d":"417,413v-192,-264,-337,-551,-347,-940v-7,-300,141,-678,285,-873r71,-98r164,2v-184,334,-265,514,-272,951v-7,411,112,686,268,958r-169,0","w":682},")":{"d":"241,-1498v194,268,336,556,348,940v9,287,-149,695,-286,874r-71,97r-211,0v178,-317,267,-532,273,-953v6,-410,-112,-686,-268,-958r215,0","w":682},"*":{"d":"94,-1310r209,68r0,-241r173,0r0,241r209,-68r47,149r-213,66r139,199r-128,91r-139,-188r-143,188r-128,-91r140,-199r-213,-66","w":797},"+":{"d":"57,-412r0,-261r410,0r0,-410r263,0r0,410r410,0r0,261r-410,0r0,412r-263,0r0,-412r-410,0","w":1196},",":{"d":"118,237v115,-33,164,-100,173,-237r-173,0r0,-298r308,0v-3,201,20,413,-85,528v-48,53,-154,108,-223,117r0,-110","w":569},"-":{"d":"47,-706r574,0r0,270r-574,0r0,-270","w":682},"\u00ad":{"d":"47,-706r574,0r0,270r-574,0r0,-270","w":682},".":{"d":"128,-298r303,0r0,298r-303,0r0,-298","w":569},"\/":{"d":"459,-1519r237,0r-573,1519r-235,0","w":569},"0":{"d":"396,-328v30,87,83,132,168,132v85,0,137,-44,166,-132v51,-154,50,-624,0,-771v-28,-83,-81,-126,-166,-126v-85,0,-139,43,-168,126v-52,148,-53,618,0,771xm952,-1265v144,233,144,875,0,1107v-79,127,-203,194,-388,194v-185,0,-309,-67,-388,-194v-145,-233,-144,-874,0,-1107v79,-127,203,-195,388,-195v185,0,309,68,388,195"},"1":{"d":"142,-1000r0,-194v179,-8,243,-14,329,-94v33,-32,62,-103,67,-162r237,0r0,1450r-292,0r0,-1000r-341,0"},"2":{"d":"552,-1457v294,0,502,180,502,465v0,357,-367,484,-564,662v-26,23,-48,49,-66,79r633,0r0,251r-993,0v3,-104,28,-198,67,-285v43,-96,137,-199,288,-307v131,-94,216,-161,255,-202v59,-63,89,-133,89,-208v0,-121,-72,-218,-197,-214v-159,5,-205,97,-209,275r-277,0v7,-324,161,-516,472,-516"},"3":{"d":"1012,-1061v0,132,-80,253,-176,291v26,0,63,22,112,67v159,147,134,443,-18,599v-88,90,-211,140,-378,140v-320,-1,-488,-162,-498,-481r280,0v-2,154,72,250,217,249v119,-1,214,-90,209,-223v-6,-175,-118,-222,-324,-218r0,-204v194,-1,283,-32,289,-197v4,-111,-71,-187,-185,-187v-137,0,-196,97,-194,235r-266,0v6,-222,105,-377,280,-440v51,-18,114,-27,189,-27v261,0,463,146,463,396"},"4":{"d":"1071,-312r-164,0r0,312r-279,0r0,-312r-574,0r0,-249r533,-880r320,0r0,906r164,0r0,223xm628,-535r0,-626r-363,626r363,0"},"5":{"d":"609,-952v255,0,448,189,448,473v0,134,-43,254,-129,359v-86,105,-215,158,-386,158v-278,1,-473,-161,-488,-426r284,0v22,116,73,192,205,194v144,2,218,-118,217,-262v-1,-144,-66,-266,-214,-264v-99,1,-155,35,-191,102r-256,-12r102,-801r799,0r0,242r-593,0r-52,317v89,-58,127,-80,254,-80"},"6":{"d":"350,-459v0,144,88,265,223,265v133,0,204,-117,204,-257v0,-152,-81,-262,-214,-262v-137,0,-213,105,-213,254xm569,38v-350,0,-505,-307,-505,-691v0,-366,63,-607,274,-747v155,-103,437,-74,562,40v78,71,125,160,135,275r-284,0v-5,-79,-77,-145,-166,-145v-93,0,-159,52,-198,156v-21,57,-36,142,-44,254v65,-78,150,-120,283,-121v257,-4,440,204,440,466v0,135,-40,255,-121,358v-81,103,-206,155,-376,155"},"7":{"d":"1080,-1208v-108,111,-292,382,-369,558v-63,145,-158,459,-159,650r-296,0v9,-260,92,-531,256,-811v103,-175,192,-295,263,-364r-723,0r4,-256r1024,0r0,223"},"8":{"d":"350,-421v0,138,75,225,209,225v133,0,209,-88,209,-225v0,-141,-76,-226,-209,-226v-133,0,-209,85,-209,226xm54,-402v0,-176,87,-312,218,-370v-113,-71,-168,-162,-168,-304v0,-230,195,-381,455,-381v261,0,455,150,455,381v0,136,-53,236,-168,294v129,70,215,198,215,380v0,263,-220,440,-514,440v-297,0,-493,-175,-493,-440xm376,-1044v0,107,73,179,183,179v112,0,182,-72,182,-179v1,-114,-67,-183,-182,-183v-114,0,-183,69,-183,183"},"9":{"d":"61,-940v0,-298,194,-522,484,-522v221,0,369,99,454,293v91,208,89,660,3,876v-88,222,-242,335,-470,335v-229,0,-429,-149,-442,-378r284,0v13,84,74,144,171,144v94,0,160,-52,198,-156v21,-57,34,-141,39,-251v-62,80,-148,123,-280,123v-246,0,-441,-188,-441,-464xm564,-708v132,0,208,-104,208,-249v0,-151,-73,-267,-215,-267v-141,0,-208,103,-207,258v1,162,59,258,214,258"},":":{"d":"232,-1047r303,0r0,298r-303,0r0,-298xm232,-298r303,0r0,298r-303,0r0,-298","w":682},";":{"d":"232,-1047r303,0r0,298r-303,0r0,-298xm232,237v115,-37,163,-95,173,-237r-173,0r0,-298r308,0v-3,201,20,412,-85,528v-47,52,-154,109,-223,117r0,-110","w":682},"\u037e":{"d":"232,-1047r303,0r0,298r-303,0r0,-298xm232,237v115,-37,163,-95,173,-237r-173,0r0,-298r308,0v-3,201,20,412,-85,528v-47,52,-154,109,-223,117r0,-110","w":682},"<":{"d":"7,-670r1178,-448r0,279r-841,297r841,298r0,278r-1178,-448r0,-256","w":1196},"=":{"d":"1140,-907r0,263r-1083,0r0,-263r1083,0xm1140,-440r0,263r-1083,0r0,-263r1083,0","w":1196},">":{"d":"1185,-414r-1178,448r0,-278r842,-298r-842,-297r0,-279r1178,450r0,254","w":1196},"?":{"d":"488,-289r298,0r0,289r-298,0r0,-289xm123,-1009v10,-302,182,-478,489,-480v288,-2,534,140,525,428v-6,191,-76,251,-211,357v-55,43,-129,91,-148,160v-7,26,-12,65,-13,118r-270,0v13,-244,20,-263,166,-382v72,-58,171,-116,171,-237v0,-117,-66,-201,-207,-201v-143,0,-210,116,-213,237r-289,0","w":1251},"@":{"d":"1189,-908v1,-69,-47,-125,-118,-125v-141,0,-254,239,-254,380v0,90,42,163,128,163v71,0,129,-54,175,-162v46,-108,69,-194,69,-256xm881,-343v-173,0,-282,-140,-282,-330v0,-229,191,-497,425,-497v120,0,198,69,222,161r36,-126r189,0r-149,513v-20,67,8,128,77,127v57,0,115,-38,173,-113v58,-75,86,-174,86,-298v0,-183,-79,-315,-236,-395v-99,-51,-210,-76,-333,-76v-404,0,-732,275,-732,659v0,369,311,614,689,614v232,0,419,-81,565,-192r73,112v-168,130,-379,225,-651,225v-277,0,-491,-86,-643,-258v-126,-143,-189,-312,-189,-507v0,-457,397,-797,871,-797v404,0,740,241,740,627v0,272,-205,552,-453,552v-116,0,-204,-79,-189,-193v-54,108,-149,192,-289,192","w":1997},"A":{"d":"559,-557r374,0r-184,-580xm578,-1474r348,0r522,1474r-334,0r-95,-303r-543,0r-102,303r-322,0","w":1479},"B":{"d":"1035,-1059v0,-138,-112,-159,-256,-159r-324,0r0,325r362,0v125,-2,218,-39,218,-166xm1066,-466v0,-132,-95,-183,-244,-183r-367,0r0,393r362,0v163,3,249,-60,249,-210xm877,-1474v273,3,452,124,452,382v0,156,-64,245,-180,301v141,50,228,165,228,346v0,300,-220,445,-548,445r-668,0r0,-1474r716,0","w":1479},"C":{"d":"92,-725v0,-449,242,-777,665,-777v248,0,430,81,544,244v64,91,97,183,102,275r-308,0v-43,-167,-134,-256,-326,-256v-254,0,-362,230,-362,519v0,165,35,290,103,372v68,82,155,123,260,123v190,0,283,-104,325,-277r305,0v-48,306,-275,543,-626,543v-437,0,-682,-313,-682,-766","w":1479},"D":{"d":"1090,-752v0,-291,-58,-466,-351,-466r-284,0r0,962r284,0v145,0,247,-72,304,-215v31,-79,47,-172,47,-281xm791,-1474v243,3,371,74,479,219v179,237,168,724,15,980v-109,182,-271,275,-494,275r-635,0r0,-1474r635,0","w":1479},"E":{"d":"1246,-1213r-780,0r0,313r716,0r0,256r-716,0r0,379r816,0r0,265r-1117,0r0,-1474r1081,0r0,261","w":1366},"F":{"d":"156,-1472r1045,0r0,259r-739,0r0,339r647,0r0,256r-647,0r0,618r-306,0r0,-1472","w":1251},"G":{"d":"85,-722v0,-455,277,-790,718,-790v352,0,611,203,647,498r-303,0v-33,-152,-156,-244,-340,-244v-271,0,-407,224,-407,539v0,181,44,307,124,385v142,138,392,153,536,24v66,-60,107,-138,122,-235r-341,0r0,-246r614,0r0,791r-204,0r-31,-184v-122,147,-228,223,-460,223v-410,0,-675,-326,-675,-761","w":1593},"H":{"d":"154,0r0,-1474r305,0r0,562r576,0r0,-562r306,0r0,1474r-306,0r0,-658r-576,0r0,658r-305,0","w":1479},"I":{"d":"438,0r-306,0r0,-1474r306,0r0,1474","w":569},"J":{"d":"990,-448v2,323,-150,484,-462,484v-191,0,-320,-50,-385,-150v-70,-106,-102,-258,-98,-445r291,0v-1,114,14,229,38,275v23,46,70,69,143,69v135,0,165,-73,165,-228r0,-1031r308,0r0,1026"},"K":{"d":"161,-1474r303,0r0,607r569,-607r398,0r-604,607r635,867r-396,0r-455,-644r-147,151r0,493r-303,0r0,-1474","w":1479},"L":{"d":"156,-1474r308,0r0,1209r730,0r0,265r-1038,0r0,-1474","w":1251},"M":{"d":"436,-1237r2,1237r-287,0r0,-1474r448,0r268,1159r266,-1159r443,0r0,1474r-287,0r2,-1237r-279,1237r-299,0","w":1706},"N":{"d":"151,-1474r323,0r587,1029r0,-1029r287,0r0,1474r-308,0r-602,-1047r0,1047r-287,0r0,-1474","w":1479},"O":{"d":"808,-220v269,0,398,-221,398,-519v0,-298,-129,-519,-398,-519v-269,0,-401,221,-401,519v0,299,132,519,401,519xm1291,-131v-114,112,-272,172,-483,172v-211,0,-369,-60,-483,-172v-147,-144,-224,-343,-224,-608v0,-270,79,-469,224,-608v115,-111,272,-172,483,-172v211,0,368,61,483,172v145,139,223,338,223,608v0,265,-77,465,-223,608","w":1593},"P":{"d":"986,-1005v0,-152,-83,-213,-230,-213r-287,0r0,434r287,0v147,-1,230,-70,230,-221xm1291,-1007v0,345,-176,473,-509,477r-313,0r0,530r-306,0r0,-1474r642,0v300,2,486,155,486,467","w":1366},"Q":{"d":"808,-1258v-273,0,-401,211,-401,519v0,202,54,345,156,434v104,91,279,111,413,47r-149,-142r159,-166r149,142v50,-102,70,-174,71,-315v2,-303,-116,-519,-398,-519xm1514,-761v-4,242,-55,414,-163,541r170,159r-161,168r-178,-168v-117,73,-202,102,-377,102v-443,0,-704,-317,-704,-780v0,-464,266,-778,709,-780v424,-2,712,319,704,758","w":1593},"R":{"d":"1061,-1012v0,-151,-76,-206,-239,-206r-358,0r0,396r349,0v162,3,248,-46,248,-190xm1329,-258v1,128,1,173,64,221r0,37r-339,0v-35,-104,-32,-212,-35,-343v-4,-189,-49,-235,-237,-235r-318,0r0,578r-301,0r0,-1474r723,0v261,-2,384,92,456,265v84,202,-14,457,-200,505v142,60,186,142,187,347r0,99","w":1479},"S":{"d":"1294,-431v0,297,-256,469,-591,469v-353,0,-616,-164,-618,-493r294,0v22,178,116,237,312,242v170,4,307,-52,306,-195v0,-49,-22,-86,-64,-113v-69,-45,-244,-78,-357,-104v-153,-35,-259,-72,-318,-113v-99,-68,-149,-174,-149,-319v0,-293,234,-460,567,-460v308,0,568,174,570,482r-296,0v-7,-152,-126,-226,-295,-226v-141,0,-259,55,-261,182v0,53,22,94,70,118v166,83,560,114,698,229v86,72,132,170,132,301","w":1366},"T":{"d":"1227,-1474r0,261r-441,0r0,1213r-310,0r0,-1213r-443,0r0,-261r1194,0","w":1251},"U":{"d":"749,38v-405,0,-593,-186,-593,-606r0,-906r313,0r0,906v-1,237,60,346,280,346v218,0,279,-111,279,-346r0,-906r313,0r0,906v4,421,-186,606,-592,606","w":1479},"V":{"d":"1019,-1474r320,0r-503,1474r-291,0r-498,-1474r329,0r320,1119","w":1366},"W":{"d":"357,-1474r195,844r42,235r209,-1079r325,0r175,844r45,235r45,-226r197,-853r313,0r-415,1474r-294,0r-178,-862r-52,-285r-52,285r-178,862r-286,0r-418,-1474r327,0","w":1933},"X":{"d":"391,0r-358,0r474,-751r-451,-723r368,0r263,479r270,-479r356,0r-451,711r479,763r-374,0r-280,-502","w":1366},"Y":{"d":"997,-1474r349,0r-493,920r0,554r-308,0r0,-554r-510,-920r363,0r306,642","w":1366},"Z":{"d":"52,-260r761,-953r-742,0r0,-261r1126,0r0,247r-771,967r773,0r0,260r-1147,0r0,-260","w":1251},"[":{"d":"128,-1488r502,0r0,208r-232,0r0,1465r232,0r0,209r-502,0r0,-1882","w":682},"\\":{"d":"123,-1519r573,1519r-237,0r-571,-1519r235,0","w":569},"]":{"d":"47,185r232,0r0,-1469r-232,0r0,-204r502,0r0,1882r-502,0r0,-209","w":682},"^":{"d":"716,-1474r367,884r-251,0r-227,-566r-230,566r-252,0r368,-884r225,0","w":1196},"_":{"d":"0,256r0,-101r1139,0r0,101r-1139,0"},"`":{"d":"516,-1237r-206,0r-303,-299r317,0","w":682},"a":{"d":"484,-173v143,0,256,-81,250,-251r0,-106v-113,83,-389,26,-389,219v0,92,56,138,139,138xm400,34v-197,0,-345,-122,-341,-324v5,-237,158,-332,405,-361v112,-13,271,-11,271,-118v0,-100,-75,-117,-183,-118v-118,-1,-167,50,-183,150r-275,0v19,-261,178,-379,468,-379v119,0,225,24,318,71v93,47,139,137,139,268r2,626v4,69,15,87,59,109r0,42r-310,0v-17,-43,-21,-75,-26,-128v-78,84,-190,162,-344,162"},"b":{"d":"722,-1114v297,-3,458,249,458,555v0,313,-154,593,-455,588v-172,-3,-244,-52,-323,-166r0,137r-279,0r0,-1472r284,0r0,524v73,-100,154,-164,315,-166xm649,-206v160,-2,232,-150,232,-323v0,-192,-72,-336,-240,-336v-171,0,-243,140,-243,335v0,177,76,326,251,324","w":1251},"c":{"d":"71,-523v-3,-353,179,-593,515,-593v295,0,465,124,490,417r-292,0v-13,-100,-75,-176,-190,-176v-164,0,-225,150,-225,345v0,187,59,329,220,329v133,0,179,-79,193,-194r291,0v-7,87,-38,169,-94,246v-89,125,-222,187,-397,187v-346,0,-508,-228,-511,-561"},"d":{"d":"535,-1116v143,0,243,70,301,164r0,-520r289,0r0,1472r-277,0r0,-151v-76,117,-157,184,-333,185v-270,2,-452,-258,-452,-551v0,-339,161,-599,472,-599xm597,-206v170,1,247,-147,247,-323v0,-195,-73,-332,-245,-338v-173,-6,-242,154,-242,329v0,184,66,331,240,332","w":1251},"e":{"d":"784,-654v-5,-138,-89,-230,-221,-230v-141,0,-205,100,-222,230r443,0xm47,-534v0,-351,192,-585,516,-585v297,0,465,175,508,437v7,50,10,122,9,216r-746,0v6,167,84,271,245,271v100,0,162,-49,196,-125r291,0v-7,65,-43,129,-101,197v-170,200,-554,210,-759,25v-103,-93,-159,-235,-159,-436"},"f":{"d":"535,-1489v44,0,63,3,109,6r0,232v-37,-3,-143,-14,-158,21v-32,34,-19,91,-22,150r187,0r0,201r-187,0r0,879r-284,0r0,-879r-159,0r0,-201r156,0v-4,-127,9,-265,59,-311v41,-65,141,-98,299,-98","w":682},"g":{"d":"601,-234v157,-7,238,-126,238,-316v0,-185,-77,-313,-241,-317v-163,-4,-237,142,-237,326v0,169,82,313,240,307xm530,-1116v165,3,243,68,311,183r0,-157r277,0r0,1034v2,373,-168,496,-539,502v-259,4,-468,-97,-487,-327r310,0v22,90,78,109,194,111v220,4,248,-152,240,-395v-62,111,-152,169,-309,170v-294,2,-461,-235,-461,-547v0,-306,161,-580,464,-574","w":1251},"h":{"d":"419,-948v68,-109,165,-168,315,-170v199,-3,351,102,374,268v32,236,5,585,10,850r-291,0r0,-663v-1,-132,-48,-219,-178,-218v-162,1,-231,119,-230,291r0,590r-284,0r0,-1469r284,0r0,521","w":1251},"i":{"d":"426,-1220r-289,0r0,-263r289,0r0,263xm137,-1090r289,0r0,1090r-289,0r0,-1090","w":569},"j":{"d":"431,-1220r-285,0r0,-263r285,0r0,263xm111,440r-102,-3r0,-228v83,9,137,-2,137,-97r0,-1197r285,0r0,1202v-5,233,-73,323,-320,323","w":569},"k":{"d":"130,-1469r280,0r0,794r355,-410r353,0r-381,417r396,668r-344,0r-261,-466r-118,123r0,343r-280,0r0,-1469"},"l":{"d":"424,0r-285,0r0,-1474r285,0r0,1474","w":569},"m":{"d":"1016,-928v74,-151,281,-233,477,-158v89,34,170,124,189,238v7,37,10,90,10,161r-2,687r-292,0r0,-694v1,-113,-53,-178,-160,-178v-123,0,-186,90,-186,223r0,649r-287,0r0,-649v3,-146,-35,-220,-161,-220v-136,0,-187,66,-187,213r0,656r-289,0r0,-1088r277,0r0,159v73,-122,147,-181,315,-185v158,-4,252,71,296,186","w":1821},"n":{"d":"737,-1116v238,0,384,123,384,382r0,734r-292,0r0,-663v2,-143,-52,-214,-183,-216v-156,-2,-227,116,-227,289r0,590r-284,0r0,-1088r275,0r0,159v76,-121,156,-187,327,-187","w":1251},"o":{"d":"622,-201v182,0,259,-144,259,-342v0,-199,-76,-341,-259,-341v-182,0,-260,143,-260,341v0,199,78,342,260,342xm1180,-543v0,330,-200,581,-557,581v-357,0,-557,-251,-557,-581v0,-157,46,-294,138,-409v92,-115,232,-173,419,-173v187,0,327,58,419,173v92,115,138,252,138,409","w":1251},"p":{"d":"884,-545v-1,-163,-72,-320,-244,-320v-171,0,-243,149,-243,345v0,187,73,312,243,312v172,0,245,-153,244,-337xm722,-1114v283,0,456,230,456,555v0,344,-159,590,-463,590v-153,0,-243,-64,-308,-170r0,568r-282,0r0,-1519r273,0r0,161v66,-109,170,-185,324,-185","w":1251},"q":{"d":"595,-210v174,0,249,-145,249,-336v0,-175,-85,-327,-248,-321v-167,7,-239,140,-239,335v0,188,71,322,238,322xm523,-1118v171,0,250,67,320,192r0,-162r275,0r0,1520r-282,0r0,-567v-50,96,-158,172,-321,169v-272,-5,-455,-252,-455,-554v0,-323,176,-598,463,-598","w":1251},"r":{"d":"402,-900v88,-149,155,-221,361,-214r0,292v-231,-26,-346,57,-346,301r0,521r-287,0r0,-1090r272,0r0,190","w":797},"s":{"d":"1061,-330v0,250,-200,367,-493,367v-302,0,-493,-127,-502,-385r289,0v15,136,82,165,235,165v93,0,183,-21,183,-100v0,-32,-13,-56,-40,-73v-27,-17,-126,-45,-297,-86v-124,-30,-210,-69,-261,-115v-51,-45,-76,-111,-76,-196v0,-223,197,-374,452,-368v276,7,459,99,480,363r-285,0v-11,-104,-75,-143,-191,-145v-99,-2,-172,25,-172,97v0,33,14,56,42,71v28,15,127,40,297,79v192,44,339,126,339,326"},"t":{"d":"576,-201r56,-2r0,213r-135,5v-210,1,-324,-31,-324,-221r0,-671r-152,0r0,-203r152,0r0,-304r282,0r0,304r177,0r0,203r-177,0r0,576v3,102,11,95,121,100","w":682},"u":{"d":"498,24v-273,0,-373,-156,-373,-457r0,-657r292,0r0,657v-3,147,43,221,175,223v160,2,228,-110,228,-287r0,-593r289,0r0,1090r-277,0r0,-154v-11,16,-39,58,-58,74v-83,69,-142,104,-276,104","w":1251},"v":{"d":"805,-1090r306,0r-393,1090r-301,0r-391,-1090r320,0r227,804"},"w":{"d":"647,-1090r289,0r166,785r170,-785r297,0r-316,1090r-293,0r-171,-794r-173,794r-296,0r-306,-1090r306,0r170,782","w":1593},"x":{"d":"26,0r372,-552r-356,-536r349,0r182,316r178,-316r339,0r-358,531r372,557r-355,0r-188,-327r-189,327r-346,0"},"y":{"d":"307,441r-130,-4r0,-228v66,5,141,6,180,-24v24,-7,68,-111,64,-137r-400,-1138r317,0r238,804r225,-804r303,0r-374,1072v-72,207,-129,334,-171,384v-42,50,-126,79,-252,75"},"z":{"d":"71,-858r0,-232r884,0r0,237r-553,619r572,0r0,234r-941,0r0,-222r559,-636r-521,0","w":1024},"{":{"d":"535,43v4,133,46,180,159,211r0,159v-234,9,-430,-96,-429,-325r0,-313v-1,-149,-78,-225,-208,-258r0,-121v146,-47,202,-110,208,-284v5,-130,-18,-268,17,-375v54,-166,183,-240,412,-235r0,159v-125,26,-159,66,-159,209r0,232v-2,212,-76,277,-230,358v163,70,230,128,230,330r0,253","w":797},"|":{"d":"428,-1488r0,1488r-263,0r0,-1488r263,0","w":573},"}":{"d":"739,-483v-132,34,-208,109,-208,258r0,313v0,226,-192,336,-429,325r0,-159v114,-32,158,-78,158,-211r0,-253v2,-207,80,-260,230,-330v-156,-79,-230,-151,-230,-358r0,-232v-1,-149,-38,-180,-158,-209r0,-159v152,1,223,20,310,81v74,52,119,158,119,261r0,268v6,180,57,237,208,284r0,121","w":797},"~":{"d":"387,-472v-136,-34,-202,50,-226,167r-173,0v27,-195,89,-356,227,-427v87,-44,203,-16,285,12v121,41,225,119,372,119v98,0,140,-92,162,-176r170,0v-18,124,-53,231,-110,319v-68,105,-152,151,-285,128v-140,-24,-280,-107,-422,-142","w":1196},"\u2122":{"d":"191,-1296r0,-178r655,0r0,178r-221,0r0,564r-216,0r0,-564r-218,0xm1220,-1474r135,427r133,-427r308,0r0,742r-197,0r0,-538r-161,538r-168,0r-161,-538r0,538r-197,0r0,-742r308,0","w":2048},"\u2026":{"d":"872,0r0,-298r306,0r0,298r-306,0xm189,0r0,-298r306,0r0,298r-306,0xm1554,0r0,-298r306,0r0,298r-306,0","w":2048},"\u2013":{"d":"-5,-682r1147,0r0,218r-1147,0r0,-218"},"\u2014":{"d":"241,-682r1565,0r0,218r-1565,0r0,-218","w":2048},"\u201c":{"d":"613,-926v0,-175,-14,-357,73,-449v52,-55,118,-95,207,-113r0,104v-92,28,-152,91,-152,195r157,0r0,263r-285,0xm139,-926v1,-174,-14,-355,71,-448v50,-56,118,-96,209,-114r0,104v-94,31,-153,86,-152,195r157,0r0,263r-285,0","w":1024},"\u201d":{"d":"628,-1012v93,-32,148,-81,151,-194r-156,0r0,-263r284,0v-1,174,14,347,-69,445v-49,58,-117,99,-210,117r0,-105xm156,-1012v93,-30,152,-87,152,-194r-157,0r0,-263r285,0v-1,175,13,351,-72,447v-50,57,-117,98,-208,115r0,-105","w":1024},"\u2018":{"d":"137,-926v0,-175,-12,-359,73,-450v51,-55,117,-94,207,-112r0,104v-94,26,-153,91,-152,195r156,0r0,263r-284,0","w":569},"\u2019":{"d":"137,-1012v92,-30,153,-86,152,-194r-157,0r0,-263r285,0v0,176,14,356,-73,449v-52,56,-118,96,-207,113r0,-105","w":569},"\u00a0":{"w":569}}});
